//Numpy array shape [3, 3, 5, 10]
//Min -0.210754528642
//Max 0.209471270442
//Number of zeros 0

#ifndef W15_H_
#define W15_H_

#ifndef __SYNTHESIS__
conv2d_4_weight_t w15[450];
#else
conv2d_4_weight_t w15[450] = {-0.0532874316, 0.1817058176, 0.2056371123, -0.1255798638, 0.0266943574, 0.1569462270, -0.0437711179, 0.0856078416, -0.0783058554, -0.1803417653, 0.1825831980, -0.1795304120, 0.0091071129, -0.0844723284, -0.0104352087, -0.0668230206, 0.2094712704, -0.1982624531, -0.0045861453, 0.0728669018, -0.0379734337, 0.0228730589, 0.2020205110, -0.1565929204, -0.1168907434, -0.0323847383, -0.0925680026, 0.1870634407, -0.0068787485, 0.1384679228, -0.0227514207, -0.0441789031, -0.1757547110, 0.1796653122, -0.1253624260, -0.0426830798, -0.0314705521, 0.1606040746, 0.1462133974, -0.1984061003, -0.0665344596, -0.1700532138, 0.1362346858, -0.0827606767, 0.0574971586, 0.0409393162, 0.0454467088, 0.1679013520, 0.1591616720, 0.1632811874, 0.1998243183, -0.1326204687, -0.0361575335, -0.1033005193, 0.1061605960, -0.0037427396, -0.0101089478, -0.0186294913, -0.1275477707, -0.1465995759, -0.1586002260, 0.1688278168, 0.1235722154, 0.1611954719, -0.0633106381, -0.1654391289, 0.0162134022, -0.1793134362, -0.0490166247, 0.0191151351, 0.2037722915, 0.0632824451, 0.1324616820, -0.0573683828, -0.0231671482, 0.1260338575, -0.0509690493, 0.2092610151, 0.1719710082, 0.1322711855, 0.0086503178, 0.1077538878, 0.0127230287, 0.0325325578, 0.0380248576, 0.1855664700, -0.1516704112, -0.0179201812, 0.1395543069, -0.0696320236, -0.1527180374, 0.1700479835, 0.1002083272, 0.1216554791, -0.0429362506, -0.1509439647, 0.1347926706, -0.1027986482, -0.0397818983, -0.0888081267, 0.0238346308, 0.1951596588, -0.1298621297, -0.0654681325, -0.1568424404, -0.0452774614, 0.0954880863, 0.0183388293, -0.1465406716, 0.1404709369, -0.2107545286, -0.0765563995, 0.0843442529, -0.0703229904, 0.1252079755, -0.0923840404, -0.1320108175, -0.1663452685, 0.2018338889, -0.0342203379, 0.1303740591, 0.0884570926, -0.0085538626, -0.0651740432, -0.0868020281, 0.0862784237, -0.0618201792, -0.1326653510, -0.1901892573, -0.1718996316, -0.1356917918, -0.1143706590, 0.0324789286, 0.0471586138, 0.0854351670, 0.1792071909, 0.1985562891, 0.1916176826, 0.1672707945, -0.1480316818, 0.0103832930, -0.0525339395, 0.0433111042, 0.0692561418, -0.0489196181, -0.0914648771, 0.0348679274, -0.1795131266, 0.1866948158, -0.0166862756, 0.1798306257, 0.2013503760, 0.0763560981, -0.0616324991, -0.0338050723, 0.0765788704, 0.0889369398, 0.0697746724, 0.0146596730, -0.0959063768, 0.1143900603, -0.0628655553, 0.1547992378, -0.0089477301, 0.0726238638, 0.0946173817, -0.1232215241, 0.0329547673, -0.0621150732, -0.1208965629, -0.1038988531, -0.0791206807, -0.0485530943, -0.1949805766, -0.0693612993, 0.1313701719, -0.0680117905, 0.1574103683, 0.0307214856, 0.2062144130, 0.0193843544, 0.0153180659, -0.0205444247, -0.2004590482, -0.1399504840, -0.1811631173, 0.1479188949, -0.0908827856, -0.1751157194, 0.1573231965, -0.1681203544, 0.1195027679, 0.1039323658, -0.0033482164, -0.0042913556, -0.0342093855, 0.0300243795, 0.0584913641, 0.1355075389, 0.1992009133, 0.1884387285, -0.1362546831, 0.0570705384, 0.0299773365, 0.1178110987, -0.0617848933, 0.2041056305, -0.1973955184, 0.1424771398, 0.0334955007, -0.1085184291, -0.0895415619, -0.1784723848, -0.0734914690, 0.2046716064, 0.0672851354, 0.0215985924, 0.1214681119, -0.1132255644, 0.1498533636, -0.1307467520, -0.0863331705, 0.0937540084, 0.0643642098, 0.1884068102, 0.1646225601, 0.1409380585, 0.0916363150, 0.1545497924, -0.1481598914, 0.0931364745, 0.1732334644, -0.1709426194, 0.0152955055, 0.0397352129, -0.1640620232, 0.1691435128, -0.1408969313, -0.2001060545, -0.1597648263, -0.0203585923, 0.1853679568, 0.1311086565, 0.1167254895, -0.0625342280, 0.0851991326, -0.1583698243, 0.0923280865, -0.1162221953, -0.1756974608, 0.0457229465, -0.0783847272, 0.0258352607, 0.2061706334, 0.1240627915, -0.0092170835, 0.1317747384, 0.0571792573, -0.1054380089, -0.1518217623, -0.0903042033, -0.0229856968, 0.1351975054, -0.1697140038, -0.0590145588, 0.2004448622, 0.0624236315, 0.1701040417, 0.0914542228, 0.1229117662, -0.1227076873, 0.0731672198, 0.0730524808, -0.0515982956, 0.0283796787, 0.2017594427, 0.1597921699, -0.1662862003, -0.1469824314, -0.1432498991, -0.1531116068, -0.0579734594, 0.1177874357, 0.0558050126, 0.1167880446, 0.1212343723, -0.0423453152, -0.0257194042, 0.1585399061, 0.0944547802, 0.0363561660, -0.1022845507, 0.0113790482, 0.0292536020, 0.1373693198, 0.0708718449, -0.1848356873, -0.0134222507, -0.2012224942, -0.0381575525, -0.0630960166, 0.1685064882, -0.1816600561, 0.1184225529, -0.0426826775, 0.0151453614, -0.1473347843, 0.1378278583, -0.2083196342, 0.0657934695, -0.0322684199, 0.1895592064, 0.0869271904, 0.0835670382, -0.0666145831, -0.0098859817, 0.0211529583, -0.0112680197, -0.1009015143, 0.1871742159, -0.1614270806, 0.1377032250, 0.1997189671, 0.0280994028, 0.1333718449, 0.0286108851, 0.0396269411, -0.0494454205, -0.1011366472, -0.0144645572, -0.0592280626, -0.0501968563, -0.0080761164, 0.1538033634, 0.1790537685, 0.1970926374, -0.0510446429, -0.0824385881, -0.1688075960, -0.1062651351, -0.0366460830, 0.0357064754, -0.0105738938, -0.0607752651, -0.1834519953, 0.1336573511, 0.0999653190, -0.0274114013, -0.1309799254, -0.0855472088, 0.1909825951, 0.1331757754, -0.0301147997, -0.1535519063, -0.1576674581, 0.0643424839, -0.0864987373, 0.1886800975, -0.1330181956, -0.0999280214, 0.0371163934, 0.0137211084, -0.0750432312, 0.0641034395, 0.1622481793, -0.0923209563, 0.1420569569, 0.1801465899, -0.0124857873, -0.1094440222, -0.0561914742, 0.1225893050, 0.0009339899, -0.2033881843, -0.0617173463, 0.0509994179, 0.1924279779, 0.0366353840, -0.0896812454, -0.0231607556, 0.2078187019, 0.0425607413, 0.0820413679, -0.1939672232, 0.1129010767, -0.1666596532, -0.1450475454, -0.0604708195, -0.0532346517, -0.0453198850, 0.1283201724, -0.1416544020, -0.0907101259, 0.0165156275, 0.1904837936, -0.0761287212, -0.1245107725, -0.0387127995, -0.0196932107, -0.0920461193, 0.1432344764, 0.1917615682, -0.1328595281, 0.1013973504, -0.0253789723, 0.0466679484, 0.0815423578, -0.1428868473, -0.0630018115, 0.0518308431, 0.1893031150, -0.1912438720, -0.0439298600, 0.0361855775, 0.0489767641, 0.0813635141, -0.0669813007, -0.0747097433, -0.1836334467, 0.0339106768, -0.1607123911, 0.1120822877, 0.1084329337, 0.0197298080, 0.0897060782, -0.1210792661, 0.0157043934, -0.0734955817, -0.1162307411, -0.0586007833, 0.0180461407, -0.1200403795, 0.1681336612, -0.0254970342, 0.1422988623, 0.1815930754, 0.1430573016, 0.0250270218, -0.1807054728, -0.0177254230, 0.1052528471, -0.1617232710, -0.2038811147, 0.0664197654, 0.0526669770, 0.1841513664, -0.1762793958, -0.0653963536, 0.1271618456, -0.1952559650};
#endif

#endif
