//Numpy array shape [144, 20]
//Min -1.179244875908
//Max 0.797997951508
//Number of zeros 0

#ifndef W7_H_
#define W7_H_

#ifndef __SYNTHESIS__
weight7_t w7[2880];
#else
weight7_t w7[2880] = {0.030614137650, -0.062160685658, 0.149962663651, -0.106553778052, -0.083528421819, -0.049987550825, -0.067496143281, 0.066019833088, -0.362746447325, 0.143591180444, 0.219634428620, -0.055115807801, 0.065165117383, 0.309547275305, 0.040404446423, -0.200921475887, 0.002214474371, -0.284812510014, -0.297438889742, -0.402205556631, -0.049909852445, 0.243462696671, 0.091350309551, -0.028619816527, 0.007575833704, 0.383052289486, 0.243501543999, -0.059078551829, 0.073945321143, 0.138786688447, -0.188683584332, -0.323857188225, -0.217135056853, 0.042217466980, -0.068182505667, -0.046711165458, 0.163158848882, 0.143215626478, 0.175383791327, 0.045895308256, 0.032219957560, 0.244926065207, -0.301336884499, 0.100441306829, 0.278622329235, -0.291106253862, 0.082013256848, -0.317563414574, 0.084175929427, 0.412941217422, -0.150001510978, -0.168002203107, -0.068195454776, 0.106981135905, 0.085367344320, -0.357760667801, 0.208147644997, -0.347283989191, -0.213483110070, 0.104274556041, -0.197541490197, 0.085173092782, -0.047125570476, -0.044872246683, 0.022403746843, -0.219699174166, 0.125318542123, -0.131974905729, -0.048809088767, 0.087931469083, 0.073168307543, 0.014309908263, -0.149716600776, -0.099508896470, -0.424337327480, -0.041971415281, 0.182104915380, -0.258666157722, -0.168261215091, 0.218676120043, 0.177663013339, -0.047954380512, 0.313846707344, 0.212693154812, 0.004830403253, 0.109752461314, -0.115800179541, -0.314144581556, -0.407566905022, 0.377095222473, -0.023944815621, 0.029668778181, -0.037956871092, 0.061046976596, 0.003211635398, 0.014387609437, -0.037516564131, 0.029642878100, 0.083036318421, -0.157823398709, -0.003535389202, -0.172249853611, -0.043654933572, 0.115450523794, 0.038112271577, 0.051437970251, 0.389488518238, -0.174283027649, -0.038617327809, 0.121562995017, -0.152604490519, 0.312901347876, 0.287752181292, 0.415906786919, 0.144432947040, 0.113171301782, 0.043706733733, -0.090599201620, -0.124580375850, -0.101904675364, 0.038397174329, -0.087905570865, 0.246039763093, -0.063779458404, -0.225358396769, 0.113663405180, 0.085082441568, -0.232442125678, 0.157124087214, -0.155712515116, -0.070552378893, -0.044781595469, 0.039109431207, -0.113508008420, 0.392169177532, 0.016045227647, 0.245107352734, 0.132259815931, -0.081016093493, 0.044069338590, 0.025524731725, -0.183464676142, -0.324582397938, -0.293916463852, 0.100342333317, -0.264609664679, 0.058112051338, -0.104096524417, 0.060914717615, 0.213763773441, 0.029358783737, -0.048752535135, -0.122313849628, -0.192397773266, -0.024964481592, 0.038631800562, -0.165772452950, -0.076502382755, 0.015535761602, -0.439793527126, -0.103612110019, -0.014013325796, -0.029635589570, -0.198833525181, 0.046243976802, -0.107002988458, 0.101760968566, 0.242949560285, 0.038337692618, 0.017075497657, -0.206514909863, -0.043181806803, -0.103369906545, -0.054634671658, 0.119026772678, 0.088802970946, 0.161879867315, -0.205044373870, -0.204006344080, -0.222483173013, -0.032853465527, -0.275906831026, 0.018684435636, -0.062644757330, -0.029929697514, -0.382875204086, -0.096864953637, 0.065187916160, -0.119822591543, -0.094079591334, 0.181463927031, 0.284764617682, 0.049686755985, -0.120358899236, -0.290404558182, -0.044963747263, 0.201878398657, 0.239039659500, -0.198677822948, -0.082868926227, -0.183176666498, 0.058890569955, 0.066969856620, -0.012058380991, -0.131863668561, -0.143126234412, -0.227275386453, 0.114217258990, -0.026884825900, -0.085758097470, -0.157347157598, -0.222154468298, 0.073941923678, -0.062125746161, -0.054876878858, -0.108940638602, -0.323846250772, 0.079858660698, -0.215217009187, 0.393618762493, 0.283138394356, 0.155392214656, -0.011608569883, -0.157693177462, -0.010916554369, 0.095204114914, 0.386266082525, 0.027109730989, -0.159509718418, -0.093595176935, 0.167346790433, 0.246098235250, -0.005051717628, 0.123299971223, -0.284297525883, 0.196342274547, -0.566882312298, -0.033216774464, 0.213694572449, 0.073457509279, -0.119563080370, -0.237240418792, 0.005934038199, 0.086899921298, 0.193989410996, 0.247810974717, -0.037559174001, -0.126119941473, 0.076848387718, 0.117365933955, 0.429378688335, -0.035517726094, -0.246651843190, 0.253433585167, -0.228278815746, -0.021781207994, 0.147831946611, 0.450710088015, -0.025172086433, -0.003062171396, -0.114459462464, 0.066260538995, -0.123230770230, 0.052731629461, -0.354917764664, -0.034773807973, 0.124805107713, -0.212466239929, 0.131171658635, -0.397545963526, 0.209923088551, 0.166602879763, 0.194802537560, -0.238347649574, 0.197449490428, 0.378515511751, 0.012352488004, 0.001384032192, -0.514859974384, 0.048181623220, 0.046261277050, 0.279678314924, -0.107833407819, -0.058336958289, -0.086311712861, -0.220908835530, 0.075464360416, -0.000311407261, 0.052001677454, 0.112463243306, -0.176001131535, 0.128111079335, 0.145178750157, 0.188513472676, 0.158253118396, 0.010057207197, 0.019789034501, 0.126188367605, 0.233445540071, 0.082853637636, 0.163163393736, -0.024048557505, 0.093857407570, 0.325823932886, 0.167156696320, 0.080546401441, 0.141924947500, 0.218093499541, 0.192832157016, 0.031118182465, 0.066555045545, -0.066495887935, 0.088178046048, 0.148225486279, 0.150059446692, -0.069365151227, -0.113468967378, -0.202386513352, 0.073299296200, 0.239006578922, 0.149822816253, 0.243798539042, 0.000118320087, 0.168487802148, 0.124295249581, 0.111427940428, 0.175557434559, 0.115007124841, 0.080132275820, 0.122076749802, 0.051469236612, 0.087852664292, 0.178367525339, -0.061437703669, 0.099507190287, -0.315411776304, -0.115717045963, 0.411014407873, -0.543976604939, 0.314524382353, 0.011417888105, -0.037270829082, 0.145652025938, -0.275537908077, 0.219158381224, 0.061023585498, 0.152958288789, -0.053835641593, -0.043423473835, 0.249300420284, 0.235841512680, 0.080280177295, 0.170292183757, 0.093798249960, -0.282282143831, -0.365845710039, -0.435092538595, 0.153609052300, 0.012512349524, -0.078919500113, 0.192477196455, 0.159643381834, 0.179728209972, 0.157839000225, 0.016150692478, 0.141747459769, 0.084658019245, 0.127637788653, -0.032064743340, 0.126987040043, 0.111575841904, 0.141747459769, 0.057059861720, 0.040465470403, 0.128584355116, 0.021386355162, -0.047623835504, 0.021208874881, 0.107552960515, 0.079866059124, 0.134411618114, 0.211940854788, 0.010353007354, 0.036560907960, 0.008578206412, 0.065549328923, -0.144942104816, 0.037270829082, -0.015144971199, -0.024078138173, 0.143403947353, 0.181325539947, 0.099773414433, 0.262433946133, -0.010116367601, -0.179935276508, -0.014464630745, 0.058716341853, -0.113084420562, 0.194725289941, 0.078978657722, 0.005324403755, 0.116160742939, 0.122076749802, 0.040465470403, -0.013458910398, -0.080457657576, -0.037892006338, -0.283110380173, -0.371702551842, -0.432962775230, 0.080990098417, 0.023841498420, 0.045316591859, 0.111575841904, -0.495169579983, 0.074748717248, 0.108026236296, 0.100276276469, 0.343305736780, 0.076050236821, 0.150858104229, 0.072027355433, -0.205167025328, 0.043068513274, 0.251045644283, -0.270864248276, -0.969248592854, 0.250276565552, 0.364100486040, -0.243561893702, -0.143374368548, 0.029758004472, 0.052555661649, 0.180700019002, 0.309180617332, 0.055010277778, -0.437358587980, 0.372025489807, -0.113887414336, 0.413215935230, -0.119132891297, -0.182986497879, -0.131540462375, 0.206658408046, -0.132246583700, -0.120276138186, -0.301346033812, 0.108406558633, 0.211567640305, -0.057969264686, -0.052656535059, 0.045897938311, 0.029926128685, -0.049899298698, -0.172394677997, 0.093107245862, 0.147545903921, -0.080834172666, 0.116846397519, 0.045528065413, -0.272664010525, 0.090585380793, 0.028413008898, -0.054674025625, -0.030800374225, -1.101785898209, 0.232919424772, 0.183289125562, 0.387123048306, 0.020511167124, -0.257129341364, -0.435072094202, -0.176463276148, -0.028917381540, -0.771219849586, -0.146806150675, -0.110457673669, 0.047814555466, -0.433626234531, -0.014088817872, 0.304305016994, 0.094889365137, -0.008944213390, 0.149597018957, -0.599329531193, 0.342872738838, 0.274278014898, 0.237727776170, -0.025723019615, -0.196772694588, 0.238904654980, -0.207936152816, 0.362509638071, -0.044351194054, -0.033860236406, -0.266846925020, -0.455347895622, -0.001815742580, -0.185340240598, -0.038265094161, -0.211567640305, -0.211634889245, -0.263955175877, 0.023302029818, 0.048218052834, 0.029455380514, -0.065971978009, -0.102992959321, -0.698758304119, -0.254977345467, -0.090081006289, -0.134264081717, -0.030228752643, -0.437190473080, 0.002656364115, -0.066610850394, -0.396000027657, -0.288703083992, -0.129859223962, 0.139677688479, 0.257465571165, 0.049495797604, 0.392402142286, -0.419302046299, -0.136651441455, 0.139879435301, -0.493781119585, -0.470008343458, -0.227404952049, -0.293982177973, 0.238971903920, 0.292973428965, -0.849565804005, 0.042770825326, -0.437963843346, -0.094250492752, 0.060188505799, -0.138500809669, 0.029421756044, -0.000874246471, -0.014525940642, -0.414964437485, 0.024041777477, -0.431575119495, 0.321016579866, 0.060827378184, 0.054035153240, 0.207095533609, -0.100403837860, 0.020343042910, -0.310323864222, -0.110793925822, -0.292670816183, -0.272327780724, 0.065803855658, 0.039677336812, -0.113652035594, 0.151412755251, 0.154001876712, 0.094216868281, -0.231036439538, 0.209449276328, 0.111466422677, -0.451716423035, -0.503162443638, -0.152757748961, 0.046604059637, 0.055918145925, -0.195763960481, 0.036314852536, -0.064290739596, 0.122495375574, -0.030430501327, 0.424177646637, 0.137223064899, -0.159177780151, -0.212275907397, 0.016673324630, 0.166126936674, 0.128606125712, -0.343563765287, 0.381434351206, -0.058624807745, -0.210480317473, -0.182497113943, -0.329269021749, 0.527016997337, 0.036098331213, -0.109973981977, -0.395355999470, -0.126437440515, 0.046335518360, 0.188000485301, 0.014388029464, 0.070214517415, 0.129235759377, 0.221067294478, 0.304573833942, -0.234849020839, -0.146608665586, 0.586387991905, 0.084789104760, -0.214304685593, 0.229229062796, 0.106872513890, -0.079658851027, 0.071846872568, 0.069724813104, -0.187697321177, 0.216496706009, -0.252245247364, 0.131847515702, -0.075204856694, -0.061399810016, 0.133176729083, 0.110790163279, -0.450039833784, -0.339646100998, -0.184782415628, -0.045519340783, -0.238999858499, -0.755056738853, -0.069328382611, -0.039619550109, -0.492877453566, -0.342887490988, 0.173122748733, -0.764104664326, 0.010423743166, 0.211996078491, -0.095515996218, -0.016370173544, 0.073665782809, 0.077583424747, 0.569341540337, 0.020917443559, 0.185808464885, -0.195649221539, 0.057715352625, -0.148124411702, 0.250472962856, 0.017489500344, 0.241285160184, 0.098594151437, -0.097428180277, 0.505633115768, -0.152625054121, 0.129095837474, 0.189912661910, -0.171047315001, 0.030594967306, 0.061376489699, -0.319148421288, 0.220111206174, 0.217872545123, 0.127650037408, 0.349090456963, 0.384092777967, -0.058531530201, -0.093533851206, 0.382507055998, -0.170487657189, -0.362755566835, -0.362522393465, -0.138633444905, -0.166056990623, 0.087424188852, 0.123009495437, 0.024018915370, 0.076370820403, 0.025091605261, 0.288203656673, 0.198494181037, 0.201502367854, 0.049063879997, 0.006156304386, 0.204837039113, -0.205583259463, -0.079239100218, -0.404124081135, 0.024555260316, -0.332347154617, -0.389223009348, 0.116573356092, 0.025557991117, -0.159224420786, -0.033649802208, -0.165404036641, -0.058414936066, -0.008394960314, -0.246555328369, 0.368398845196, 0.051745604724, -0.111979447305, -0.249586835504, -0.053074806929, -0.129422307014, 0.213418558240, -0.381084561348, -0.168342277408, -0.219248384237, 0.110883437097, 0.004500631709, -0.464614421129, 0.001469118055, 0.045496024191, -0.096891835332, -0.211343139410, 0.435931652784, 0.150246471167, -0.348320901394, -0.280088543892, -0.296831816435, -0.126367479563, -0.294849663973, -0.026444125921, -0.118602134287, -0.300772786140, -0.197398170829, -0.057099152356, -0.109900519252, 0.266488283873, -0.117600716650, 0.008032766171, -0.116782091558, 0.099565371871, -0.201995924115, 0.382681995630, 0.123996235430, -0.148145690560, -0.213431105018, -0.099872350693, -0.838247299194, -0.221566200256, -0.041647590697, 0.192453816533, 0.093041941524, 0.131491780281, 0.071706511080, 0.493989527225, 0.068534329534, 0.243566766381, 0.158250615001, 0.120900802314, -0.223945334554, 0.126298621297, 0.076695010066, 0.011511925608, -0.138501256704, -0.093707077205, -0.068943642080, 0.098746746778, -0.080685809255, 0.019723767415, -0.163367018104, -0.049245461822, -0.085520818830, 0.362676829100, -0.352571934462, -0.298696100712, -0.179023236036, 0.005807127338, -0.436429917812, -0.383986681700, 0.015093414113, 0.000025582058, 0.001637251698, -0.083218432963, 0.049450118095, 0.262190520763, -0.110821470618, 0.226426795125, 0.140061765909, -0.015349234454, 0.122717134655, 0.309261500835, -0.080788135529, -0.003504741937, 0.232489734888, -0.025454146788, -0.087081328034, -0.084676608443, 0.013046849519, 0.125173002481, 0.087618544698, 0.030263574794, -0.027321638539, 0.025070415810, 0.011384015903, 0.036173030734, 0.062036491930, -0.064185380936, -0.101663097739, -0.044154632837, -0.001560505480, -0.072499550879, 0.110616818070, 0.125352084637, 0.394807904959, 0.207547232509, 0.035431150347, -0.111154042184, -0.159273892641, -0.135098844767, 0.179944187403, 0.150294587016, -0.383065730333, -0.089613951743, -0.048145432025, -0.111972667277, -0.065157502890, 0.217038184404, 0.078332260251, -0.184600129724, -0.112509891391, 0.047633793205, -0.215068355203, 0.193246871233, 0.123612500727, -0.163776338100, -0.113021530211, -0.133384853601, -0.335073798895, 0.014965503477, 0.043284840882, 0.133512765169, 0.044538363814, 0.155845895410, 0.174034744501, 0.522692620754, -0.110284253955, 0.242850467563, 0.068815737963, -0.012611954473, -0.025326237082, -0.643746912479, 0.131133630872, -0.212612479925, -0.198874920607, 0.030903125182, 0.096751339734, -0.137708216906, 0.045817464590, 0.115196004510, -0.066385440528, -0.192811965942, 0.018802812323, -0.488642871380, 0.134894192219, -0.102916620672, 0.534895241261, 0.013865475543, -0.205321595073, -0.211819440126, 0.129470795393, -0.075467072427, -0.093348927796, -0.062164399773, -0.247455239296, 0.084420792758, -0.404196500778, 0.242262080312, 0.178767412901, 0.177676692605, -0.138053029776, -0.023320740089, 0.083817906678, 0.010724660940, -0.060317222029, 0.070969909430, 0.273370891809, -0.085329435766, 0.164468795061, 0.013927664608, -0.101272471249, 0.087128877640, 0.094074711204, 0.124629199505, 0.284851312637, -0.021989153698, -0.150577127934, 0.083026155829, -0.069710299373, -0.116387769580, 0.003778823651, 0.040955249220, -0.025552045554, -0.026379788294, 0.201645225286, 0.034945122898, 0.196174934506, 0.199953749776, 0.279668927193, -0.012452123687, 0.033397603780, 0.161229804158, -0.068630635738, -0.054379072040, 0.071725673974, 0.248142749071, 0.086013220251, -0.172854185104, 0.022852886468, 0.033901445568, -0.125492930412, -0.196822732687, 0.042322825640, 0.096162065864, -0.099832922220, -0.086337119341, -0.007809568662, 0.247207045555, -0.014251563698, 0.048728831112, 0.194879338145, -0.226441502571, -0.195059269667, 0.267144829035, 0.122613832355, -0.155363634229, 0.198658153415, -0.045309893787, 0.195131257176, -0.146258473396, -0.206971570849, -0.116747654974, -0.305976748466, 0.075756415725, -0.081082761288, 0.135821714997, 0.097349695861, 0.012848000042, 0.049664538354, 0.069350413978, -0.052435677499, 0.015763092786, 0.094722509384, -0.034693200141, -0.073129236698, 0.107390567660, 0.101956263185, 0.153852105141, -0.177316799760, -0.085329435766, -0.278301358223, -0.104979321361, -0.185522243381, 0.108902096748, -0.051571946591, -0.170730844140, 0.001259607845, -0.123153664172, 0.003598879557, 0.234503000975, -0.036204729229, -0.169039383531, 0.026343798265, 0.156911149621, 0.124773159623, -0.034837156534, -0.112644933164, -0.118007265031, -0.258363574743, -0.128120109439, -0.073453135788, -0.105447173119, -0.258903414011, 0.025264134631, 0.030194599181, -0.029438834637, 0.037608291954, 0.012524100952, -0.106130957603, 0.094146691263, 0.105771072209, -0.102460101247, 0.186853826046, -0.015727104619, -0.200205668807, -0.069890245795, -0.221007198095, 0.012272179127, -0.082846209407, 0.259047359228, 0.202185064554, 0.097745567560, -0.039371743798, 0.148165881634, 0.049952447414, -0.169183328748, -1.179244875908, 0.309395670891, -0.042970623821, 0.070646010339, 0.162237495184, -0.126140728593, -0.002411249327, -0.085149489343, 0.039695642889, 0.111673235893, -0.013243877329, 0.067191079259, 0.399151742458, -0.017382588238, 0.021773220971, 0.127904176712, -0.101272471249, -0.191982686520, -0.099412582815, -0.032583236694, 0.144163981080, 0.110153816640, -0.007213254925, -0.004921192303, 0.043200880289, -0.015797251835, 0.085356846452, 0.079682871699, 0.111445911229, -0.003022376215, -0.029291206971, 0.089109539986, 0.089311778545, 0.183791935444, 0.106940433383, 0.119378238916, 0.320326924324, 0.130714967847, -0.016639921814, -0.258452475071, -0.223476067185, -0.052346657962, 0.059290256351, 0.180735856295, -0.110569529235, -0.077817760408, -0.103277631104, 0.012370394543, 0.236711606383, 0.052773609757, 0.251868426800, -0.196948826313, -0.017381472513, -0.272002607584, -0.093884669244, -0.077491931617, 0.098098017275, 0.224723219872, -0.213128075004, -0.106985375285, -0.102659672499, 0.368156880140, 0.052301716059, 0.029763102531, 0.036785352975, -0.055672395974, -0.022808266804, 0.135467618704, -0.055256675929, 0.034594409168, 0.067054055631, -0.081222146749, 0.009112071246, -0.157006263733, -0.154107481241, -0.122164674103, -0.145557194948, -0.037201069295, 0.001011203974, -0.081783927977, 0.037077479064, -0.158141061664, -0.009696322493, 0.073851592839, 0.128524020314, 0.214386463165, 0.018583681434, 0.180803269148, -0.131973356009, -0.082446828485, 0.273350894451, 0.295777142048, 0.076907679439, 0.161096021533, -0.084401823580, -0.080446891487, 0.073402166367, -0.021954361349, 0.128872320056, 0.051414102316, 0.068818047643, -0.188241228461, -0.267025262117, 0.004516710993, -0.128321781754, 0.098772153258, -0.016572508961, -0.020999334753, -0.096513800323, -0.151894062757, 0.189870387316, 0.127220690250, 0.028718192130, -0.191409662366, -0.046773798764, -0.040875110775, -0.064436160028, 0.064615927637, 0.019280288368, -0.250890940428, -0.047099631280, -0.111906565726, 0.051919702441, 0.153410866857, 0.161770164967, -0.074020124972, 0.034313518554, -0.221891850233, -0.042436856776, 0.069413535297, -0.212307885289, 0.007651443128, 0.063076652586, 0.052077002823, -0.014022028074, -0.056526299566, -0.020460026339, -0.222116559744, -0.001415685518, -0.114097513258, -0.005291967187, 0.150916561484, 0.060413818806, 0.165781259537, 0.066132739186, -0.171342894435, 0.042875047773, 0.034538231790, -0.027538454160, 0.111457146704, -0.331899613142, -0.219880670309, 0.010392929427, 0.110086403787, 0.139343902469, -0.199274584651, -0.030527122319, -0.027999112383, 0.053964581341, 0.040391977876, 0.019673533738, 0.128511726856, -0.099587261677, -0.053179837763, 0.069887109101, -0.018527168781, -0.247565940022, -0.080075562000, 0.166028499603, -0.055193658918, -0.393083274364, 0.157764360309, -0.193819254637, 0.123529382050, -0.172204226255, -0.012321611866, 0.164790377021, -0.432136535645, -0.124528832734, 0.073109224439, 0.041275907308, -0.056387037039, -0.081328608096, -0.037770364434, 0.187404856086, -0.097662948072, 0.037457104772, 0.119695656002, 0.101705506444, -0.267793685198, -0.173546776175, -0.011486248113, -0.046049412340, 0.012784045190, 0.064681001008, -0.204231455922, -0.039053242654, 0.088175602257, 0.136999621987, -0.029446564615, 0.013037637807, -0.019780214876, -0.072691544890, -0.065009184182, 0.193699911237, 0.172800913453, 0.080896005034, -0.002297249623, -0.045706316829, 0.144323959947, -0.082328058779, 0.018139321357, -0.023255923763, -0.013350899331, -0.174337387085, 0.065053932369, -0.026791300625, 0.061250045896, 0.073974423110, 0.078882180154, 0.201606035233, 0.056595876813, 0.089935831726, 0.112416058779, -0.064830176532, 0.263497531414, 0.114086791873, 0.019466953352, 0.046467095613, 0.125215023756, 0.081999875605, -0.317572385073, -0.037994123995, -0.062622427940, 0.085729181767, 0.095992214978, 0.124349825084, -0.066366650164, -0.194072842598, 0.169817462564, -0.172099798918, 0.123186282814, -0.069111414254, 0.159554436803, 0.135821163654, -0.071975514293, 0.010382374749, -0.179260060191, -0.151230633259, -0.150171503425, -0.153348878026, 0.157003581524, -0.114892318845, -0.083282761276, -0.208244189620, 0.107866317034, -0.037009585649, 0.040425628424, 0.257396370173, -0.104733698070, 0.053612437099, 0.182109251618, 0.027313403785, 0.090010419488, -0.141534447670, -0.213330954313, 0.039097994566, -0.396976679564, 0.035413447767, -0.012933216989, -0.086012609303, -0.017870811746, -0.076719187200, -0.198413744569, 0.026000689715, 0.280786573887, 0.125587955117, -0.101243071258, -0.004773505963, 0.217567443848, 0.050494741648, 0.030938284472, -0.056387037039, 0.244627252221, 0.096917085350, -0.397618114948, -0.019735462964, -0.216553077102, 0.451499074697, -0.131152078509, 0.049167107791, -0.398408740759, -0.038307383657, -0.087161235511, -0.213166862726, -0.056148361415, 0.112013295293, 0.129749849439, -0.076570019126, 0.067858368158, 0.488792061806, 0.145606845617, 0.304549664259, -0.205648601055, 0.055387582630, -0.299618482590, 0.014007537626, -0.139571353793, 0.327654570341, -0.222629547119, -0.119473583996, -0.050380934030, 0.080139070749, 0.294074267149, 0.190267294645, -0.125143796206, -0.207970976830, -0.062099382281, -0.027091039345, -0.322131365538, 0.001302049961, -0.030010150746, -0.132746085525, -0.012201468460, 0.189658269286, -0.177078798413, 0.022092847154, -0.155132949352, -0.000924035441, 0.010500403121, -0.150743782520, 0.049855913967, 0.188713237643, -0.122770711780, 0.043996687979, 0.120607629418, -0.007224277128, -0.128776937723, -0.029632136226, -0.110800251365, -0.093789599836, 0.087174341083, 0.268999308348, 0.188524231315, -0.316650152206, -0.015813605860, 0.209882050753, -0.061406355351, -0.332295745611, -0.093537591398, 0.091857522726, -0.034378319979, -0.123883754015, 0.002289087744, 0.372974306345, -0.019677754492, 0.153494894505, -0.013104503043, 0.237561106682, 0.116281457245, 0.152738854289, 0.138542309403, 0.023037884384, -0.393681108952, 0.008253316395, 0.154859945178, 0.179346874356, 0.396537214518, -0.041266582906, -0.122539699078, 0.038263466209, -0.273661494255, -0.189742282033, 0.075581900775, -0.260073989630, -0.089673437178, -0.355438649654, 0.537872612476, 0.479658395052, 0.509815573692, -0.126676857471, 0.144926562905, 0.514519751072, 0.053531054407, -0.511411607265, -0.540707767010, -0.014301548712, 0.046243775636, -0.001134043559, 0.165948361158, 0.017955688760, 0.293213248253, 0.026230005547, -0.062855407596, 0.161559194326, -0.204736858606, -0.431062549353, -0.475164234638, -0.062792405486, -0.412476837635, 0.066614553332, -0.024213928729, -0.019845761359, -0.210134059191, -0.018312701955, -0.258141905069, 0.261019021273, 0.001869071741, -0.076883949339, -0.211079090834, -0.057332199067, 0.299828499556, -0.139172345400, -0.234558001161, 0.294536292553, -0.688133418560, 0.020118771121, 0.076379932463, -0.182728007436, 0.143750518560, 0.008841339499, 0.105697058141, -0.102315925062, -0.038515478373, -0.005733219907, 0.045340739191, 0.317910194397, 0.061994377524, -0.035995379090, -0.155888974667, 0.094797633588, 0.004599176347, 0.401724398136, -0.009891379625, -0.093726597726, -0.089064419270, -0.130415007472, -0.123148724437, 0.110842250288, -0.021105809137, 0.151142790914, -0.217946365476, 0.007875301875, 0.034882336855, 0.402963459492, 0.093096569180, -0.199192643166, -0.032362241298, -0.024843953550, 0.103493094444, -0.120486602187, -0.081301905215, -0.010714932345, 0.035227689892, 0.042944323272, -0.120749771595, 0.114471197128, 0.143702283502, 0.124152235687, -0.054740149528, 0.025941416621, 0.003552846145, 0.053151704371, 0.089215911925, 0.081489883363, 0.212240263820, 0.023272082210, 0.081489883363, -0.005225879606, 0.055943228304, -0.058311793953, 0.034043408930, -0.204739809036, -0.161363124847, 0.114640384912, 0.080907143652, -0.112177826464, 0.216112673283, -0.176129058003, 0.010028800927, 0.054993923753, 0.088792957366, 0.137639895082, 0.098445795476, -0.114668577909, 0.029616450891, -0.033282086253, -0.021053902805, -0.107440702617, -0.057155705988, -0.014324173331, -0.036299183965, 0.102496787906, -0.102261811495, -0.090804353356, -0.173948481679, -0.074262000620, 0.160291641951, -0.003280273173, 0.089732863009, 0.168854176998, 0.022614147514, -0.024164993316, -0.033112902194, 0.142029255629, 0.109903253615, -0.024230787531, -0.117394305766, -0.127413704991, -0.012688736431, 0.015734033659, -0.084657371044, -0.113446697593, -0.136145442724, -0.102384001017, 0.015423864126, 0.294265896082, -0.035284087062, 0.029259284958, -0.041355881840, -0.127676889300, 0.017604446039, -0.141418308020, 0.106970742345, -0.000206779398, -0.126774579287, -0.143429711461, 0.039128303528, 0.168534606695, -0.080690965056, 0.278381466866, -0.130158230662, 0.075963236392, 0.104113429785, 0.094253815711, 0.151954665780, 0.138551607728, 0.004906311166, -0.032445568591, -0.110222823918, 0.060031820089, 0.088858745992, -0.063603468239, -0.256321877241, -0.111303716898, 0.015499056317, 0.099197722971, -0.255880117416, -0.134105846286, 0.132836967707, -0.046995319426, -0.005037898198, 0.229985699058, 0.063481278718, 0.070257999003, 0.183018565178, -0.027276083827, 0.113371506333, -0.035772837698, -0.076254606247, -0.099047333002, -0.300036907196, -0.135327726603, -0.094714365900, -0.283823519945, 0.065220102668, 0.070229806006, 0.216197267175, 0.205651521683, 0.081207908690, 0.023864222690, 0.307979136705, 0.247815713286, 0.055670656264, -0.051469273865, -0.020254982635, 0.073688663542, 0.079074323177, -0.111012339592, -0.129387512803, -0.212541028857, 0.036364976317, -0.134791970253, -0.081565074623, -0.082570776343, -0.262450069189, -0.008835120127, 0.176072657108, 0.100616976619, 0.015414464287, 0.134369015694, -0.037342481315, -0.100400798023, 0.114759646356, -0.061377439648, 0.214145660400, 0.054108336568, -0.198061496019, -0.177237987518, -0.117055155337, 0.050875891000, 0.003599414602, -0.206298768520, 0.036283038557, -0.133927896619, 0.160544827580, -0.084699459374, -0.104133173823, 0.012578431517, 0.107084542513, -0.201411068439, 0.076985314488, -0.236031040549, -0.106616072357, 0.210522815585, 0.063384056091, -0.140869066119, -0.008830668405, 0.063149817288, -0.117914013565, -0.252169847488, -0.084933698177, 0.069825522602, 0.036548502743, 0.077079005539, -0.013960420154, 0.166416317225, -0.027257172391, -0.151737585664, 0.203136593103, -0.135583162308, 0.024977283552, 0.149176612496, -0.115735627711, -0.104749992490, 0.106834687293, -0.011805455200, 0.053616445512, -0.029357481748, -0.092827424407, 0.104867115617, 0.064367838204, -0.089579358697, 0.217190712690, 0.173216953874, -0.058238685131, 0.072245955467, 0.104047290981, -0.016224693507, 0.034174919128, 0.105632282794, -0.149777814746, -0.230026811361, -0.157007873058, 0.232579961419, -0.126518249512, -0.012117769569, 0.132655218244, -0.100471295416, 0.219392523170, 0.009205444716, 0.225638791919, 0.040421191603, -0.153931587934, 0.037821181118, 0.104226872325, 0.054592423141, 0.063688561320, 0.002678089542, 0.077414743602, 0.095653861761, 0.047104705125, 0.076110832393, -0.030716046691, -0.094404608011, 0.103422664106, 0.039859026670, -0.023649949580, 0.050750967115, 0.152955606580, 0.207384064794, -0.005996421911, -0.069919213653, 0.200770825148, -0.051922142506, -0.119202308357, -0.000788591919, -0.028529850766, -0.112471953034, -0.157937005162, 0.014647509903, 0.226224392653, 0.126932069659, 0.057379823178, 0.219470605254, 0.018496776000, 0.051047664136, 0.014522584155, 0.109645508230, -0.089821405709, -0.115618512034, 0.084426186979, 0.241808831692, 0.118726029992, -0.023111209273, 0.106569223106, 0.035025976598, -0.088634610176, 0.156961023808, 0.117320619524, 0.056310150772, 0.028350271285, 0.036540694535, 0.193158179522, 0.029458984733, 0.040671043098, -0.054272301495, -0.218439966440, 0.026851166040, 0.082357108593, -0.025352058932, 0.140283480287, 0.072238147259, 0.076899424195, 0.172045782208, -0.035650603473, 0.255839526653, -0.059909563512, -0.048174377531, 0.253583073616, -0.002373583615, 0.019527411088, 0.239888101816, -0.108817882836, -0.134294867516, -0.100557185709, -0.214340850711, 0.034988500178, -0.160221293569, -0.031315512955, 0.081698372960, -0.176976561546, -0.015116320923, -0.137744367123, -0.479493200779, 0.104892335832, -0.042949080467, -0.073137819767, 0.013843213208, -0.115077197552, -0.018423473462, -0.052782736719, 0.219837829471, 0.019330745563, 0.077103480697, 0.094195313752, -0.136515155435, 0.128466770053, 0.183956697583, -0.203741073608, -0.126535162330, 0.027920560911, -0.291644006968, -0.190292969346, -0.049329251051, 0.074630431831, -0.015116320923, -0.142573386431, -0.094824545085, 0.030920412391, 0.041456472129, -0.027993727475, -0.213238164783, -0.089410185814, -0.171050027013, 0.086132295430, 0.126213222742, -0.110233537853, 0.042832013220, -0.004331491888, 0.131364196539, -0.120359860361, -0.006511870772, 0.136837095022, 0.109340898693, -0.011326265521, 0.022754965350, 0.265186786652, -0.031695984304, -0.162343129516, -0.141212478280, 0.098073169589, -0.126901000738, -0.159387186170, 0.031871583313, -0.016579661518, -0.127457067370, 0.030657010153, 0.196029260755, 0.085005521774, 0.127413168550, 0.016008958220, -0.001492608571, 0.217335522175, 0.183122590184, 0.165957584977, 0.269503653049, -0.218930557370, -0.035090934485, 0.149787664413, 0.029047334567, -0.274405837059, 0.119276985526, 0.086951769888, -0.131627589464, -0.215403914452, -0.012555472553, 0.017691802233, -0.078844852746, -0.115721069276, -0.043914888054, 0.021335523576, -0.043080780655, -0.145792737603, 0.205672681332, -0.115355230868, -0.164728388190, 0.128232643008, 0.033905629069, -0.174371808767, 0.265655070543, -0.015526056290, -0.048187844455, -0.018335672095, 0.131203219295, 0.084610424936, -0.053090039641, 0.203902035952, -0.093858741224, 0.002385247033, -0.211174845695, -0.166528299451, 0.338544130325, -0.084390923381, 0.021657457575, 0.061665222049, -0.181908011436, -0.015833357349, -0.010740928352, 0.091956399381, 0.037007912993, -0.060845751315, 0.123710915446, 0.023252500221, 0.059514109045, 0.242783039808, -0.009760489687, 0.157514110208, 0.205570250750, -0.111799314618, 0.223276689649, -0.033408094198, -0.155523970723, 0.185405403376, 0.203902035952, 0.052197400481, -0.024774376303, 0.193073317409, 0.197975516319, 0.000585336704, 0.042495444417, 0.250568002462, 0.073328055441, 0.082532472908, 0.146231740713, 0.090829625726, 0.065118707716, 0.140597879887, 0.031520381570, -0.046519633383, 0.002429147251, 0.077651850879, 0.085847295821, -0.087531916797, 0.159264832735, -0.014569681138, 0.061169896275, 0.152913361788, 0.209621295333, 0.187721237540, 0.210235953331, 0.051107712090, 0.084458619356, -0.018849525601, -0.032645191997, 0.021308159456, -0.027204327285, -0.607077658176, 0.040840636939, 0.080019421875, 0.029799550772, 0.060031641275, 0.082933358848, 0.069684050977, 0.187334224582, 0.398253142834, 0.112095482647, 0.035832311958, 0.021490279585, 0.155667945743, 0.128031075001, 0.135680153966, 0.201699033380, -0.081749573350, 0.152366995811, -0.002663519932, -0.053202103823, 0.075284272432, -0.016413656995, 0.050174340606, 0.036082725972, 0.311358630657, -0.020556909963, 0.283471375704, 0.062057737261, 0.010016655549, -0.065199322999, 0.069410875440, 0.200606301427, -0.278189867735, 0.394314765930, -0.502267003059, -0.039884503931, -0.191181540489, 0.116716809571, 0.251099348068, -0.028433643281, 0.015093279071, 0.193549111485, 0.014250969514, -0.124001644552, -0.087395325303, -0.043367568403, 0.401303648949, -0.098345346749, -0.262208729982, -0.062604099512, -0.336286455393, -0.531133174896, -0.485580176115, -0.164022743702, -0.447198152542, -0.227195963264, 0.142008855939, 0.137068837881, -0.039315376431, 0.042365901172, 0.194118246436, 0.059849519283, -0.031552467495, 0.216382533312, 0.127803429961, 0.096933908761, 0.131559669971, -0.076718479395, -0.123273164034, -0.292258709669, -0.004348139279, -0.024085504934, 0.265623509884, -0.366336435080, 0.034011099488, -0.154962226748, 0.131377547979, 0.165069937706, 0.320669591427, 0.028205992654, 0.014455855824, 0.055820092559, 0.142486929893, 0.260546892881, -0.333372533321, 0.216860607266, 0.011450858787, -0.025610767305, 0.113006092608, -0.013909492642, 0.152617409825, -0.030892277136, 0.152435287833, 0.113962225616, -0.152389764786, 0.167847275734, 0.269926100969, -0.110524691641, 0.100621864200, 0.311062693596, 0.003004996805, 0.105402536690, 0.120860062540, 0.184101581573, -0.211305916309, -0.117468059063, -0.481664568186, 0.368430823088, 0.185285374522, -0.126801759005, -0.150136008859, -0.745944917202, 0.324676245451, 0.268719553947, 0.014933923259, 0.147199317813, -0.051084946841, -0.026612434536, -0.020488614216, 0.050788998604, 0.012680175714, -0.098823413253, -0.136545225978, -0.647690653801, 0.238692358136, 0.268924444914, -0.250279814005, -0.043549686670, -0.184584990144, 0.076148658991, 0.096509896219, 0.115282244980, 0.046646449715, -0.084132306278, -0.051550406963, -0.181034520268, 0.437472283840, -0.071872413158, -0.150845751166, 0.038368567824, -0.115988418460, 0.388766199350, 0.189900875092, 0.009239057079, 0.289176613092, -0.294394403696, 0.009395984001, -0.120656989515, 0.392708957195, -0.273837029934, -0.061044469476, -0.328525960445, -0.044586788863, -0.337843477726, -0.241863220930, -0.122030094266, -0.092096336186, -0.210752502084, -0.231309890747, 0.083367288113, -0.112065248191, 0.039408206940, 0.266520321369, 0.297101408243, -0.054041620344, -0.234703436494, -0.076540976763, 0.096235275269, -0.642751991749, -0.005492432974, -0.035759661347, -0.163301810622, 0.170932367444, -0.240803956985, 0.185448080301, 0.175993248820, -0.005551280454, -0.314579099417, 0.105003550649, -0.040271304548, 0.282448381186, -0.232388764620, -0.246531784534, -0.243765950203, -0.199002623558, -0.023028986529, 0.252220362425, -0.029874913394, -0.066968455911, 0.028697963804, 0.008474039845, -0.183466881514, 0.208908617496, 0.184663444757, 0.060397148132, 0.201493829489, -0.109201341867, 0.054178930819, -0.028580268845, 0.017615018412, -0.113556057215, -0.019086204469, 0.367796868086, 0.056650523096, 0.078502565622, -0.203023865819, -0.186193481088, 0.104081608355, -0.263087540865, 0.198904544115, -0.069616593421, -0.128660246730, -0.023283993825, 0.091625556350, -0.086956985295, -0.251161128283, 0.166871890426, -0.549204051495, 0.097471073270, 0.070440456271, 0.439120024443, 0.446515202522, 0.222875088453, -0.153945058584, -0.142862111330, 0.432156413794, 0.224601283669, 0.087800465524, -0.028462573886, -0.200238421559, 0.219540402293, -0.072068572044, 0.065673805773, -0.114752620459, 0.445299029350, -0.094469852746, -0.395239412785, -0.306183516979, -0.215224921703, 0.034072700888, 0.040035914630, -0.224267810583, -0.005825902335, 0.026226367801, 0.376663208008, 0.082033410668, 0.067988477647, -0.059612516314, -0.238175436854, -0.001078870846, -0.010455238633, 0.070911236107, -0.254025042057, -0.056022819132, 0.255437374115, -0.203926190734, 0.458010077477, -0.003707392374, -0.246512174606, 0.429959446192, -0.156416654587, 0.310165554285, 0.350750714540, -0.159692496061, 0.068223863840, 0.227229803801, -0.031777650118, -0.082582652569, 0.271188884974, 0.030031839386, 0.115027241409, 0.126090571284, 0.220568418503, -0.342980712652, 0.085103593767, -0.022020969540, -0.035321854055, -0.420992344618, -0.531014382839, -0.285913854837, -0.219078287482, -0.526571571827, -0.100225761533, -0.320325076580, 0.158865556121, -0.319773167372, -0.332660108805, -0.127351835370, -0.516195774078, -0.345215946436, 0.101301975548, 0.092416323721, 0.108173176646, -0.157899722457, 0.061316531152, 0.106379494071, -0.556539952755, -0.692529082298, -0.233676150441, -0.366353869438, -0.476734668016, -0.016584714875, -0.183342501521, -0.904211878777, -0.775176703930, -0.045890815556, -0.791099131107, -0.184722259641, -0.145426690578, 0.168992996216, -0.437080353498, -0.022848824039, -0.136320278049, -0.097438648343, -0.026712153107, 0.203404217958, 0.031872455031, -0.260802209377, -0.238808855414, -0.014459883794, 0.277745664120, -0.487496793270, 0.162811666727, -0.106931395829, 0.035542614758, -0.277193784714, 0.182266294956, -0.044290293008, 0.001021022326, 0.131491124630, -0.236159712076, 0.209916681051, 0.010486175306, -0.262899458408, 0.291515678167, 0.157237440348, 0.378909677267, 0.033666141331, -0.044097129256, 0.258980929852, 0.172497585416, 0.109718509018, 0.243334457278, 0.073127277195, 0.073596395552, -0.094044439495, -0.143577814102, 0.016143191606, 0.180527791381, -0.367209315300, -0.188806355000, 0.144129723310, 0.240850895643, -0.102543756366, -0.061012983322, -0.269329130650, 0.012748981826, -0.163887888193, 0.023869847879, 0.005850182381, -0.137727633119, -0.073899939656, -0.025773916394, 0.118052259088, 0.001738497522, -0.021800206974, 0.048871096224, -0.260498672724, -0.017826497555, 0.289997935295, 0.255779892206, -0.043655604124, 0.000717475195, 0.034576784819, -0.054610896856, 0.073927536607, -0.366602212191, 0.079391390085, -0.028726601973, -0.113609433174, 0.201831281185, 0.254427731037, -0.026298224926, 0.180417403579, 0.109939269722, 0.287569552660, 0.327996522188, 0.108807869256, 0.014570265077, 0.237787827849, 0.189137488604, 0.119404427707, 0.129559457302, 0.155029833317, 0.031486120075, -0.064683146775, -0.601464927197, -0.153926014900, 0.487386405468, 0.797997951508, 0.106876201928, 0.151138901711, 0.177657887340, 0.464096039534, 0.043103702366, 0.523950040340, 0.074920967221, 0.148489758372, 0.363235592842, 0.105413660407, 0.261271357536, 0.015287740156, -0.017550546676, 0.035211473703, -0.090843394399, 0.144654035568, 0.122086785734, -0.118811994791, 0.187066376209, 0.091645747423, -0.053993720561, -0.018793750554, 0.088338695467, -0.023649474606, 0.030070001259, -0.078885354102, -0.052025619894, -0.015260848217, 0.048670168966, 0.098582498729, 0.216539502144, 0.213668003678, -0.032554324716, -0.164433225989, 0.044120952487, 0.063350267708, 0.015760939568, 0.036748640239, -0.011469834484, 0.005081572104, 0.101502388716, -0.057607281953, -0.044056423008, 0.095275446773, -0.004436293151, 0.035861380398, 0.178774550557, -0.057252377272, -0.080466292799, 0.024746449664, -0.138283282518, 0.007872403599, 0.035425815731, 0.038119856268, -0.052348259836, -0.106487169862, 0.106954991817, 0.048896014690, -0.115827582777, -0.020116573200, -0.044185478240, 0.086225405335, -0.012744260021, 0.089016236365, 0.089887365699, -0.224879726768, 0.162916809320, 0.135185956955, 0.178564831614, -0.091000467539, 0.095872327685, 0.071093611419, 0.046524614096, -0.033006019890, -0.050412420183, -0.081176094711, -0.162142485380, 0.091032736003, -0.093194417655, -0.094307526946, 0.130959376693, 0.049121864140, 0.127345815301, 0.150495201349, 0.161674648523, 0.258950471878, 0.145462021232, -0.132346719503, 0.134153500199, -0.177274271846, 0.064060069621, 0.091613486409, -0.149382084608, -0.076271981001, -0.094468846917, 0.184807911515, -0.041168801486, 0.021729771048, 0.069964371622, 0.015438299626, 0.239930868149, 0.071964740753, 0.031312163919, 0.196019634604, -0.050251100212, -0.000096791846, 0.009292017668, -0.128684759140, 0.124038755894, 0.021665241569, -0.141203179955, -0.033635169268, 0.010985874571, 0.024504469708, 0.072981052101, -0.063382528722, 0.029053686187, -0.115746922791, 0.202359497547, 0.049509029835, 0.070335410535, 0.073577940464, -0.135137557983, 0.028601991013, 0.220879003406, 0.136186137795, 0.002774699591, 0.266000121832, 0.032199423760, -0.048250738531, -0.088887184858, -0.048734694719, 0.159206464887, 0.011969925836, -0.528596401215, -0.348934620619, 0.100776448846, 0.153479605913, 0.181065291166, 0.097485527396, -0.016680462286, -0.097533918917, 0.139009222388, 0.166546508670, 0.000725938880, 0.158674106002, -0.001968100900, 0.182726874948, -0.014180005528, 0.127168357372, 0.058462277055, -0.169030830264, -0.142671182752, -0.073013320565, -0.011840869673, 0.303361773491, -0.124506585300, 0.130443155766, 0.067350998521, 0.094323657453, -0.101813502610, -0.137476861477, 0.075370498002, -0.236647278070, -0.077112250030, 0.020145894960, 0.008696595207, -0.028891211376, 0.051278244704, 0.012131385505, -0.081472724676, 0.006406735629, 0.013057073578, -0.031059270725, 0.013178874739, -0.053251422942, -0.043933641165, 0.275660157204, -0.141191780567, 0.165284037590, -0.203651368618, -0.079998932779, -0.215514793992, -0.080035477877, 0.194589376450, 0.022411394864, 0.043763119727, -0.189120501280, 0.064006455243, 0.037319842726, 0.131532967091, 0.150838434696, -0.188036471605, -0.225782617927, 0.107806116343, 0.165819957852, 0.025432061404, 0.049999333918, -0.157841995358, -0.260167062283, 0.082983061671, -0.146076008677, 0.152714163065, -0.224722951651, -0.146356150508, -0.072946652770, -0.278108358383, 0.053604647517, 0.019110586494, 0.238559558988, 0.160217106342, -0.128414854407, 0.055309861898, 0.075577557087, -0.008891477250, -0.075638458133, -0.225782617927, -0.178962290287, -0.056868914515, -0.013288495131, -0.255136668682, -0.208620846272, 0.083385005593, -0.121837601066, 0.012119205669, -0.083251021802, -0.009768445045, -0.202104493976, 0.224564611912, -0.115369960666, -0.029488036409, 0.017003428191, -0.082093916833, 0.269484847784, 0.255307197571, -0.017661154270, 0.054067488760, 0.197463870049, -0.215794935822, -0.279777020216, -0.109815835953, 0.103469997644, 0.399105519056, -0.077745616436, -0.161288961768, 0.007417684421, 0.098256915808, -0.109060667455, 0.252725005150, 0.183468937874, -0.047039568424, -0.054859194905, -0.148938328028, 0.001339811599, 0.144931077957, -0.343832194805, -0.146794632077, 0.123701155186, 0.179011017084, -0.034055575728, -0.241019934416, -0.288741588593, -0.215636596084, -0.208304166794, 0.025151917711, -0.149047955871, 0.002350760391, 0.079706609249, -0.183225333691, 0.239826276898, -0.043556056917, -0.210228621960, 0.052143033594, 0.138134583831, -0.150083258748, -0.074237741530, 0.001559053548, -0.095333687961, 0.100766018033, 0.061058871448, 0.072690874338, -0.013227595016, -0.010304369964, -0.103226393461, -0.153578951955, -0.186867177486, -0.214723080397, 0.213176205754, -0.029354054481, -0.326353758574, 0.078257180750, 0.077952675521, -0.070133052766, -0.225185796618, -0.162750571966, -0.189339742064, -0.258011192083, 0.034737661481, 0.058233086020, -0.062727548182, 0.239399984479, 0.078330263495, -0.031449034810, 0.096697859466, -0.021696189418, 0.018028808758, 0.039466589689, -0.022868957371, 0.087102800608, 0.095699772239, -0.153890877962, -0.069252885878, -0.230061113834, -0.120407395065, 0.102448157966, -0.239393547177, -0.037975784391, -0.003627626691, -0.026576092467, -0.175288915634, -0.123468510807, -0.140155598521, 0.050269961357, -0.232794255018, -0.021040234715, -0.057405952364, 0.159128576517, 0.000248467579, -0.142898678780, 0.128865227103, -0.048143077642, 0.059721667320, 0.103591106832, -0.129541054368, -0.163014620543, -0.048689708114, -0.234503701329, -0.048232529312, 0.051243953407, 0.039585854858, -0.038244131953, -0.169126912951, 0.099357217550, 0.170041278005, -0.115984670818, -0.089666984975, -0.129372105002, -0.277200371027, -0.114980861545, -0.086168557405, 0.135136544704, -0.158711150289, 0.091913126409, 0.074053280056, -0.022580733523, -0.079449996352, 0.042925260961, 0.072244435549, -0.057873070240, -0.148871839046, -0.063309542835, -0.040619481355, -0.090968951583, -0.298856824636, -0.090412385762, -0.134073108435, 0.025234367698, 0.014520445839, -0.134013473988, -0.084111250937, -0.029776355252, -0.255772531033, -0.028225917369, 0.104127794504, -0.232416585088, 0.040321320295, -0.022411776707, -0.055994655937, -0.165509223938, -0.058986205608, -0.193844467402, 0.050260022283, -0.144190713763, 0.112486243248, -0.051323466003, -0.090959012508, -0.190018072724, 0.130952358246, 0.109534449875, 0.056521408260, -0.078008882701, 0.048520751297, -0.075653411448, 0.019668694586, -0.052019175142, -0.082441546023, -0.159009322524, -0.016816286370, 0.101245574653, -0.143037825823, -0.325661510229, 0.075484454632, -0.001301970100, 0.076806299388, 0.109941937029, -0.042398508638, 0.029667029157, -0.098522365093, -0.234901249409, 0.020016549155, 0.024051662534, 0.051462605596, -0.197790130973, 0.175090134144, -0.085085242987, -0.274735569954, -0.117684185505, -0.105042159557, -0.061600085348, -0.064571753144, -0.123369127512, 0.092420004308, 0.068835459650, 0.003717075102, 0.063597761095, -0.051641501486, -0.168530598283, -0.056094042957, 0.001292031491, 0.075494393706, -0.092509448528, -0.135832265019, -0.153185233474, -0.151783883572, 0.190276473761, -0.023952275515, 0.062474690378, -0.034477360547, -0.074132792652, 0.035491108894, -0.080712214112, -0.134619742632, -0.040679112077, -0.067593120039, -0.074470706284, -0.020523423329, -0.065843909979, -0.241262018681, 0.206137418747, -0.017992168665, -0.042895454913, 0.034887861460, -0.193162456155, -0.281129688025, 0.173824608326, 0.014553221874, -0.089246466756, -0.018806217238, 0.129865899682, 0.166714131832, -0.072184644639, 0.052016139030, -0.354510486126, -0.071021713316, -0.311997145414, -0.246939599514, 0.056186068803, 0.022162098438, -0.082999877632, 0.031814407557, -0.105793282390, 0.037163875997, -0.267423748970, 0.219212055206, 0.155383884907, 0.122755430639, 0.194641038775, 0.172362640500, -0.039838612080, 0.031000355259, -0.353679835796, 0.165900081396, 0.036831613630, -0.065190456808, 0.087435625494, 0.058927256614, -0.031747952104, -0.097868755460, -0.284502208233, -0.124433368444, -0.043476920575, -0.007907914929, -0.043958704919, 0.122572682798, 0.184556782246, 0.167910292745, 0.099513471127, 0.037845022976, 0.107388153672, 0.067416638136, 0.026282187551, -0.054557967931, -0.084993474185, 0.029604841024, -0.088831134140, 0.012642695569, -0.045902457088, 0.134085670114, 0.175087213516, -0.072982080281, -0.105145365000, 0.129350900650, 0.001794232754, 0.051999524236, 0.088415808976, 0.144983977079, 0.081072740257, 0.141711160541, -0.051933072507, 0.015898896381, 0.083813928068, -0.054906845093, 0.025983149186, -0.047065384686, -0.057465288788, 0.032478936017, -0.130380913615, 0.155782595277, 0.042945295572, -0.106707014143, 0.172030374408, -0.068994894624, 0.103018864989, 0.071819148958, 0.065107390285, 0.106607332826, -0.117954194546, 0.075357779860, 0.052763734013, 0.004336062819, -0.006163522135, 0.034057196230, -0.193478107452, -0.137175738811, 0.025717336684, -0.189956098795, 0.001661326736, -0.030601637438, -0.010466357693, 0.133072271943, 0.006927732378, 0.099862344563, -0.061950873584, 0.053328584880, 0.084511689842, -0.258120328188, 0.333793759346, -0.162942916155, 0.108800284564, -0.165202319622, -0.109464816749, -0.195504918694, -0.118136942387, 0.157992169261, -0.136428147554, 0.011712352745, 0.296114861965, 0.278986603022, 0.114216208458, 0.114448793232, 0.020666904747, -0.008805030957, 0.053511332721, -0.260163754225, 0.007492583245, -0.021912898868, 0.008871484548, -0.144568651915, -0.112787470222, -0.544366896152, -0.018473953009, 0.094263672829, 0.043177880347, 0.014088050462, 0.142525210977, -0.028358846903, 0.246158778667, 0.244281470776, -0.071669630706, 0.212234482169, -0.250411778688, -0.038958109915};
#endif

#endif
