//Numpy array shape [3, 3, 10, 1]
//Min -0.241463750601
//Max 0.241321533918
//Number of zeros 0

#ifndef W18_H_
#define W18_H_

#ifndef __SYNTHESIS__
conv2d_5_weight_t w18[90];
#else
conv2d_5_weight_t w18[90] = {0.2303876877, -0.0664108843, 0.2099829018, 0.2413215339, -0.0269590169, 0.2391740084, 0.1202755570, -0.2351481020, -0.1905643940, -0.2098257840, -0.0023322850, 0.0363662839, 0.1231398582, 0.1046018600, 0.1948970556, -0.0624560416, 0.1128802001, 0.2311434746, -0.0671982169, -0.2328082472, -0.0704990774, -0.2015154511, 0.1341458559, -0.1733085215, 0.0716332793, 0.0780470371, -0.2301320583, -0.0570312440, 0.1414548457, -0.2167421877, 0.1323504448, 0.0493123233, 0.2280316651, -0.0905913562, 0.2103402913, 0.1100950837, 0.1987401843, 0.1919623911, 0.0975167155, 0.1287547648, 0.2227688134, -0.2020774484, 0.2411801517, 0.1440925896, 0.0018589795, 0.1271119416, 0.0011305213, -0.1396289170, 0.1181432307, 0.1730995774, 0.0198914111, -0.1972571015, -0.2306196988, -0.1523902416, -0.0241596401, -0.1282948256, 0.0299988687, -0.1297653019, 0.2265029848, 0.1231163740, -0.1695058346, -0.0311472267, -0.0787918568, 0.0679513216, -0.1704685390, -0.0209111273, 0.0956504643, -0.0939455777, 0.2026229501, -0.1269626915, -0.0886126459, -0.0066453367, 0.1149363518, -0.2414637506, -0.0887098312, -0.1261554658, -0.1889095604, 0.1556146443, -0.0137729198, 0.0660119355, -0.1457698494, -0.2226664573, -0.0042679757, 0.0228373706, 0.0124839842, -0.1437367201, 0.0741696060, 0.1323634684, -0.0322033167, -0.1464351416};
#endif

#endif
